-130044
-343480
25529
-50576
-113760
-17115
-203751
-92934
-59836
209114
542992
140940
-41821
319904
111151
-158041
29338
62299
-137021
-19300
-359217
105382
377748
137741
245046
215920
171476
-222934
53611
-19423
-127971
328747
-144073
-74729
233765
-41770
314316
349372
116697
-250186
388787
187225
-61054
-6676
306588
-6773
466148
156066
-8457
72794
283815
-107508
8067
570
-102449
139986
-143920
-155889
256205
7257
234129
389087
180609
-53990
260598
23161
50792
23735
153548
-104473
4970
141172
-27842
-28177
125793
-159738
74338
-4438
6883
-165414
14525
-85414
227691
36417
179721
444169
308846
-23995
-23215
65505
58190
-32350
134215
-82119
124493
45394
91362
255336
67400
-202623
450
42588
48666
32663
-68647
-170951
106312
-9607
183331
513608
176787
-38175
81995
47886
8809
-46257
133370
-90683
57780
83202
11058
62602
206563
-63098
-42419
-96892
-61509
-12528
11507
-143491
23773
12023
117920
426887
231017
10757
95813
-23771
-53296
-20841
123174
-90411
76705
106401
19861
157271
166725
-81722
53925
-24459
-124493
99803
-105651
-187913
-157801
-3619
136939
465622
185804
55974
23998
81707
-35600
72548
94611
-104102
17926
63843
-61220
42678
195573
-112760
52567
-37509
-114377
50457
-51451
-67318
-79643
54851
119014
444098
180601
2058
958
195520
-19621
25670
-43556
-94705
24758
-4382
-16655
60385
129988
-41587
46891
-24543
-139012
175216
-48876
-96155
-109069
-21774
46703
511135
176894
99853
31600
82958
-108307
24781
16596
-14381
32427
-83079
-8298
121044
191591
-58448
28560
-28284
-118758
109254
2871
-56688
30310
-8734
17255
383714
105600
26808
-28849
102705
-96175
-11894
41572
-34436
50175
-49740
-27403
166198
181308
-68784
-26533
-85055
-120753
136653
-105333
-77888
-102351
-22567
18905
554520
97777
-15305
-67753
95909
-51104
74646
-57289
-9123
-23621
-38649
-107335
123085
165378
-89214
-22780
-94815
-96481
166796
-25230
-31357
-39342
8274
-53468
341819
9997
-470
-23664
126154
-18441
106314
28498
-43380
89749
-20385
-105682
193904
176365
-9950
-61339
-115584
-117714
107815
-58755
-52065
-107791
-40056
-106032
598179
186191
72629
-40365
153324
40638
53073
-91917
16999
25479
-34581
-57209
150641
106496
-77796
-19547
-158586
-115747
170386
-5079
-47576
-82596
3262
-100874
400949
63636
95257
-37352
88666
-50143
14747
24297
39872
107903
-103176
-110977
220791
104861
-63149
-66216
-155804
-101928
52198
-48411
18639
-31020
1155
-94844
540746
73253
94952
-50092
160155
-119018
33976
-15982
41965
33117
-73103
-40918
244971
26908
-121851
-154387
-145732
-185128
68052
7080
23462
-8012
-11734
-87923
435960
132150
144578
-80942
135806
-83997
-42078
46809
85072
187633
-241807
-26561
248725
40429
-35464
-144915
22384
-135329
404040
118567
137238
117659
-110258
-32860
5859
-337572
183294
-31185
-287181
99989
383805
470430
-80207
-593520
243991
-178133
9834
211610
-63754
-341608
-45164
-136230
875302
-349678
-28250
-96403
147507
-72275
156186
36599
119487
-211703
-72074
-145975
464601
-1700
46685
-232866
82317
33317
-68817
-448133
122294
-77763
-295657
155443
-203844
-17617
-109685
-361315
319396
-195219
32007
224001
200035
-234899
101727
-199487
413898
-199652
156801
-11715
-99676
104744
-85303
-460630
106789
-29751
-206208
96012
-16120
108962
-94028
-339963
368686
-86335
-9041
-385408
-22275
-137611
27287
-105521
417363
-4582
-17430
-391109
93138
-60440
32462
-428747
-79985
-244657
-119980
79245
324310
-109584
15615
-207185
198527
-124325
80839
-109525
181408
-110775
3493
10133
259264
22235
98099
-354744
135146
-28718
-311841
-523015
82460
-34647
-179842
230987
29378
-50661
-129549
-635054
260788
-217653
-447874
26322
158918
-270066
40533
50016
589909
480041
106300
-474880
251531
-110093
70420
-587455
-69842
-58344
114813
-226172
22296
-484180
62244
-182478
-331946
-77540
-218998
-356760
351733
-106185
-210567
240626
316611
882222
10583
-738828
422970
-234043
-146584
-112284
78038
-146391
82646
-9583
337637
-296199
12314
-309529
100371
-127161
55962
-226994
130768
-102317
205758
-5360
304464
-10009
124841
-463247
233458
-65606
16463
-657500
30868
13432
-3263
16525
-223273
-245732
-105352
-594596
176908
-405226
-173036
-262444
213090
-66702
335052
66468
175833
-98328
163625
-579554
222253
-198943
-56761
-419247
55040
-74273
117423
22386
-120868
-277502
-4435
-450800
8395
-246668
-273194
-353773
214856
-264265
3928
285571
276606
431286
113915
-678734
445309
-160515
101741
-508300
116519
-6789
401367
-214572
-352445
-502991
-45949
-374784
-247258
-177249
-175806
-445799
329252
-37289
78050
231124
35390
-40560
13424
-723669
210692
-73571
-366987
-657745
90834
-189358
-84701
133115
240736
-45662
-105650
-772276
120987
-341231
-114905
-262569
303832
-176560
297922
-32534
317205
-306808
75697
-539073
49415
-175053
30463
-727133
133641
128624
139370
81860
-223537
-323093
-311586
-834217
-7797
-159488
-218963
-361637
419378
-37628
101556
412899
394658
175371
203628
-964320
331959
-208673
121109
-579422
190590
73305
266667
-206585
-68461
-522432
-186371
-680428
-293128
-96176
158528
-681005
268323
84069
288525
214166
210994
-194075
21361
-929410
321216
-188301
-148629
-769631
127690
-10143
-162649
81702
176979
-155865
-124393
-834268
34614
-203269
-259587
-317096
500839
-51097
238054
12951
377986
-90547
412569
-696215
32433
-198653
-186503
-686977
391089
90147
-216569
247772
-11916
-13858
-309295
-1017412
32061
51675
-156697
-780178
583802
142659
38840
600833
498850
359308
92168
-748316
-234966
-103688
804326
-119123
61795
-187944
431669
-180154
315835
-265806
-336869
-582881
-31222
